<?xml version="1.0"?>
<opencv_storage>
<stage14>
  <maxWeakCount>4</maxWeakCount>
  <stageThreshold>-3.1025114655494690e-01</stageThreshold>
  <weakClassifiers>
    <_>
      <internalNodes>
        0 -1 9874 553691408 -2079817664 -2147450880 21340304 16875680
        557120 49353 54198600</internalNodes>
      <leafValues>
        -7.3170733451843262e-01 4.7075209021568298e-01</leafValues></_>
    <_>
      <internalNodes>
        0 -1 5495 -2130648896 -788496384 268435476 -1925148672 41096
        8912904 159449098 319651978</internalNodes>
      <leafValues>
        -6.2530899047851563e-01 5.9616148471832275e-01</leafValues></_>
    <_>
      <internalNodes>
        0 -1 2428 -2147057126 1476395008 8454162 1409294353 -2113896310
        0 4358338 1090847374</internalNodes>
      <leafValues>
        -6.9863402843475342e-01 5.8541560173034668e-01</leafValues></_>
    <_>
      <internalNodes>
        0 -1 12971 -2130578742 -2147445760 209 353468417 -2146959352
        65536 8 374145033</internalNodes>
      <leafValues>
        -6.7853069305419922e-01 6.1629283428192139e-01</leafValues></_></weakClassifiers></stage14>
</opencv_storage>
