<?xml version="1.0"?>
<opencv_storage>
<stage16>
  <maxWeakCount>6</maxWeakCount>
  <stageThreshold>-7.5843024253845215e-01</stageThreshold>
  <weakClassifiers>
    <_>
      <internalNodes>
        0 -1 11041 666663893 -571473923 134217699 -1073938957 2147287028
        -58720386 13823 -1341488920</internalNodes>
      <leafValues>
        -4.6041056513786316e-01 5.5303031206130981e-01</leafValues></_>
    <_>
      <internalNodes>
        0 -1 6175 784137855 1064255483 -620757185 1465069503 -1883242825
        -2047868929 -1644483175 469435580</internalNodes>
      <leafValues>
        -4.5632383227348328e-01 6.2901771068572998e-01</leafValues></_>
    <_>
      <internalNodes>
        0 -1 900 -1359266053 751665151 -1342177322 -890437643 1073196031
        -67665923 -268959745 -1460363920</internalNodes>
      <leafValues>
        -4.8731884360313416e-01 6.3102763891220093e-01</leafValues></_>
    <_>
      <internalNodes>
        0 -1 6054 797624249 -151577104 -360450 -1073790979 1610563580
        -33947652 -1611677962 -277856962</internalNodes>
      <leafValues>
        -5.1659208536148071e-01 6.5440237522125244e-01</leafValues></_>
    <_>
      <internalNodes>
        0 -1 11205 -1963016649 2139094768 -65807 -1459827476 -427821170
        769583103 1592901620 -1884068900</internalNodes>
      <leafValues>
        -4.6411114931106567e-01 6.9600754976272583e-01</leafValues></_>
    <_>
      <internalNodes>
        0 -1 12251 1358970896 2030440577 -1879048159 1166057616 33570986
        -578781184 1147017 1561247881</internalNodes>
      <leafValues>
        -5.8195573091506958e-01 6.1288541555404663e-01</leafValues></_></weakClassifiers></stage16>
</opencv_storage>
